// Bayesian Network in the Interchange Format
// Produced by BayesianNetworks package in JavaBayes
// Output created Sun Nov 02 17:58:15 GMT+00:00 1997
// Bayesian network 
network "Alarm" { //37 variables and 37 probability distributions
}
variable  "Hypovolemia" { //2 values
	type discrete[2] {  "True"  "False" };
	property "position = (54, 35)" ;
}
variable  "StrokeVolume" { //3 values
	type discrete[3] {  "Low"  "Normal"  "High" };
	property "position = (184, 113)" ;
}
variable  "LVFailure" { //2 values
	type discrete[2] {  "True"  "False" };
	property "position = (145, 36)" ;
}
variable  "LVEDVolume" { //3 values
	type discrete[3] {  "Low"  "Normal"  "High" };
	property "position = (68, 114)" ;
}
variable  "PCWP" { //3 values
	type discrete[3] {  "Low"  "Normal"  "High" };
	property "position = (111, 177)" ;
}
variable  "CVP" { //3 values
	type discrete[3] {  "Low"  "Normal"  "High" };
	property "position = (32, 179)" ;
}
variable  "History" { //2 values
	type discrete[2] {  "True"  "False" };
	property "position = (238, 61)" ;
}
variable  "MinVolSet" { //3 values
	type discrete[3] {  "Low"  "Normal"  "High" };
	property "position = (564, 38)" ;
}
variable  "VentMach" { //4 values
	type discrete[4] {  "Zero"  "Low"  "Normal"  "High" };
	property "position = (640, 86)" ;
}
variable  "Disconnect" { //2 values
	type discrete[2] {  "True"  "False" };
	property "position = (738, 86)" ;
}
variable  "VentTube" { //4 values
	type discrete[4] {  "Zero"  "Low"  "Normal"  "High" };
	property "position = (682, 168)" ;
}
variable  "KinkedTube" { //2 values
	type discrete[2] {  "True"  "False" };
	property "position = (564, 172)" ;
}
variable  "Press" { //4 values
	type discrete[4] {  "Zero"  "Low"  "Normal"  "High" };
	property "position = (722, 253)" ;
}
variable  "ErrLowOutput" { //2 values
	type discrete[2] {  "True"  "False" };
	property "position = (226, 237)" ;
}
variable  "HRBP" { //3 values
	type discrete[3] {  "Low"  "Normal"  "High" };
	property "position = (229, 305)" ;
}
variable  "ErrCauter" { //2 values
	type discrete[2] {  "True"  "False" };
	property "position = (366, 278)" ;
}
variable  "HREKG" { //3 values
	type discrete[3] {  "Low"  "Normal"  "High" };
	property "position = (289, 305)" ;
}
variable  "HRSat" { //3 values
	type discrete[3] {  "Low"  "Normal"  "High" };
	property "position = (220, 396)" ;
}
variable  "BP" { //3 values
	type discrete[3] {  "Low"  "Normal"  "High" };
	property "position = (154, 396)" ;
}
variable  "CO" { //3 values
	type discrete[3] {  "Low"  "Normal"  "High" };
	property "position = (195, 176)" ;
}
variable  "HR" { //3 values
	type discrete[3] {  "Low"  "Normal"  "High" };
	property "position = (308, 171)" ;
}
variable  "TPR" { //3 values
	type discrete[3] {  "Low"  "Normal"  "High" };
	property "position = (120, 301)" ;
}
variable  "Anaphylaxis" { //2 values
	type discrete[2] {  "True"  "False" };
	property "position = (31, 239)" ;
}
variable  "InsuffAnesth" { //2 values
	type discrete[2] {  "True"  "False" };
	property "position = (329, 37)" ;
}
variable  "PAP" { //3 values
	type discrete[3] {  "Low"  "Normal"  "High" };
	property "position = (1045, 292)" ;
}
variable  "PulmEmbolus" { //2 values
	type discrete[2] {  "True"  "False" };
	property "position = (969, 258)" ;
}
variable  "FiO2" { //2 values
	type discrete[2] {  "Low"  "Normal" };
	property "position = (1014, 162)" ;
}
variable  "Catechol" { //2 values
	type discrete[2] {  "Normal"  "High" };
	property "position = (329, 107)" ;
}
variable  "SaO2" { //3 values
	type discrete[3] {  "Low"  "Normal"  "High" };
	property "position = (926, 387)" ;
}
variable  "Shunt" { //2 values
	type discrete[2] {  "Normal"  "High" };
	property "position = (894, 293)" ;
}
variable  "PVSat" { //3 values
	type discrete[3] {  "Low"  "Normal"  "High" };
	property "position = (949, 197)" ;
}
variable  "MinVol" { //4 values
	type discrete[4] {  "Zero"  "Low"  "Normal"  "High" };
	property "position = (754, 387)" ;
}
variable  "ExpCO2" { //4 values
	type discrete[4] {  "Zero"  "Low"  "Normal"  "High" };
	property "position = (530, 393)" ;
}
variable  "ArtCO2" { //3 values
	type discrete[3] {  "Low"  "Normal"  "High" };
	property "position = (474, 277)" ;
}
variable  "VentAlv" { //4 values
	type discrete[4] {  "Zero"  "Low"  "Normal"  "High" };
	property "position = (881, 165)" ;
}
variable  "VentLung" { //4 values
	type discrete[4] {  "Zero"  "Low"  "Normal"  "High" };
	property "position = (706, 344)" ;
}
variable  "Intubation" { //3 values
	type discrete[3] {  "Normal"  "Esophageal"  "OneSided" };
	property "position = (843, 86)" ;
}
probability (  "Hypovolemia" ) { //1 variable(s) and 2 values
table 0.204303 0.795697 ;
}
probability (  "StrokeVolume"  "LVFailure"  "Hypovolemia" ) { //3 variable(s) and 12 values
table 0.999984 0.496072 0.946002 0.0501887 8.17187e-06 0.487575 0.0423818 0.900351 8.10806e-06 0.0163535 0.0116161 0.0494601 ;
}
probability (  "LVFailure" ) { //1 variable(s) and 2 values
table 0.0503853 0.949615 ;
}
probability (  "LVEDVolume"  "Hypovolemia"  "LVFailure" ) { //3 variable(s) and 12 values
table 0.942356 0.977114 0.00471301 0.0480739 0.0410633 0.0105019 0.0832754 0.899598 0.0165808 0.0123845 0.912012 0.052328 ;
}
probability (  "PCWP"  "LVEDVolume" ) { //2 variable(s) and 9 values
table 0.947111 0.0376299 0.0119892 0.0445317 0.951924 0.0379379 0.00835759 0.0104458 0.950073 ;
}
probability (  "CVP"  "LVEDVolume" ) { //2 variable(s) and 9 values
table 0.947334 0.0441163 0.00759203 0.0416189 0.943518 0.271244 0.0110468 0.0123658 0.721164 ;
}
probability (  "History"  "LVFailure" ) { //2 variable(s) and 4 values
table 0.910457 0.0109619 0.0895431 0.989038 ;
}
probability (  "MinVolSet" ) { //1 variable(s) and 3 values
table 0.00986413 0.980173 0.00996241 ;
}
probability (  "VentMach"  "MinVolSet" ) { //2 variable(s) and 12 values
table 0.0131035 0.0104104 9.5428e-06 0.940078 0.0103256 9.4382e-06 0.0282517 0.970079 0.00930468 0.0185664 0.00918516 0.990676 ;
}
probability (  "Disconnect" ) { //1 variable(s) and 2 values
table 0.049499 0.950501 ;
}
probability (  "VentTube"  "VentMach"  "Disconnect" ) { //3 variable(s) and 32 values
table 0.999528 0.923558 0.668408 0.0225934 0.972636 0.0103028 0.999749 0.00562768 0.000157303 0.028624 0.16939 0.962692 0.00775992 0.0108227 8.28036e-05 0.00513605 0.000157303 0.0380266 0.16204 0.0048593 0.0137128 0.969043 8.28036e-05 0.0102277 0.000157303 0.00979114 0.000161879 0.00985519 0.00589087 0.00983163 8.54374e-05 0.979009 ;
}
probability (  "KinkedTube" ) { //1 variable(s) and 2 values
table 0.0450075 0.954993 ;
}
probability (  "Press"  "KinkedTube"  "Intubation"  "VentTube" ) { //4 variable(s) and 96 values
table 0.923413 7.08048e-05 2.50567e-06 0.000110173 0.25 0.0127805 6.60682e-05 0.25 0.9985 0.000789003 4.13918e-05 0.452643 0.979486 0.0113223 0.0114602 0.00766632 0.999793 0.536945 0.204156 0.181077 0.954 5.63435e-05 0.0157726 0.000113896 6.23672e-05 0.639224 0.0103155 0.000114035 0.25 0.961658 0.264114 0.25 0.000499001 0.202718 4.13918e-05 0.000452191 0.00836762 0.973523 0.00929018 0.00767549 6.91566e-05 0.462901 0.721779 0.818742 0.0229896 0.888773 0.00648595 0.000113896 6.00323e-05 0.217918 0.0684581 0.000113703 0.25 0.0127805 0.403834 0.25 0.000499001 0.000789003 0.101204 0.000452191 0.00315603 0.00761688 0.970987 0.00773415 6.88731e-05 7.6767e-05 0.058352 9.04933e-05 0.0229877 0.111115 0.395643 0.000113895 0.0764642 0.142787 0.921224 0.999662 0.25 0.0127805 0.331986 0.25 0.000501585 0.795704 0.898714 0.546453 0.00899036 0.00753754 0.00826247 0.976924 6.88731e-05 7.6767e-05 0.0157128 9.04941e-05 2.29647e-05 5.55127e-05 0.582099 0.999658 ;
}
probability (  "ErrLowOutput" ) { //1 variable(s) and 2 values
table 0.0509372 0.949063 ;
}
probability (  "HRBP"  "ErrLowOutput"  "HR" ) { //3 variable(s) and 18 values
table 0.957548 0.355579 0.322173 0.97579 0.00951268 0.00936298 4.23822e-05 0.639842 0.363249 0.0121083 0.980921 0.0105568 0.0424092 0.00457937 0.314578 0.0121018 0.00956587 0.98008 ;
}
probability (  "ErrCauter" ) { //1 variable(s) and 2 values
table 0.0982477 0.901752 ;
}
probability (  "HREKG"  "HR"  "ErrCauter" ) { //3 variable(s) and 18 values
table 0.357076 0.988844 0.391838 0.0131534 0.320191 0.00917456 0.264954 0.0111535 0.300545 0.975438 0.337998 0.00913731 0.37797 2.17445e-06 0.307617 0.0114087 0.341811 0.981688 ;
}
probability (  "HRSat"  "HR"  "ErrCauter" ) { //3 variable(s) and 18 values
table 0.30245 0.973338 0.304588 0.00984068 0.329127 0.00917925 0.36205 0.0153899 0.313053 0.979397 0.320242 0.00860922 0.335499 0.0112724 0.382359 0.010762 0.350632 0.982212 ;
}
probability (  "BP"  "CO"  "TPR" ) { //3 variable(s) and 27 values
table 0.982886 0.971151 0.303943 0.984028 0.0944375 0.0502076 0.904476 0.0374036 0.00928475 0.00977348 0.0112429 0.601457 0.0079426 0.845986 0.385783 0.0830165 0.197082 0.0872941 0.00734049 0.017606 0.0945997 0.00802968 0.0595763 0.564009 0.0125074 0.765515 0.903421 ;
}
probability (  "CO"  "HR"  "StrokeVolume" ) { //3 variable(s) and 27 values
table 0.970158 0.958122 0.340844 0.947677 0.0423747 0.00545406 0.801371 0.0100492 0.0147574 0.00753025 0.0391702 0.659109 0.0392872 0.94711 0.352558 0.190884 0.0379435 4.63156e-06 0.0223121 0.00270743 4.72271e-05 0.0130353 0.0105157 0.641988 0.00774488 0.952007 0.985238 ;
}
probability (  "HR"  "Catechol" ) { //2 variable(s) and 6 values
table 0.103249 0.0101625 0.884173 0.0870839 0.0125776 0.902754 ;
}
probability (  "TPR"  "Anaphylaxis" ) { //2 variable(s) and 6 values
table 0.988865 0.304924 1.12036e-05 0.396065 0.0111239 0.29901 ;
}
probability (  "Anaphylaxis" ) { //1 variable(s) and 2 values
table 0.00829836 0.991702 ;
}
probability (  "InsuffAnesth" ) { //1 variable(s) and 2 values
table 0.20072 0.79928 ;
}
probability (  "PAP"  "PulmEmbolus" ) { //2 variable(s) and 6 values
table 8.82783e-06 0.0502025 0.189356 0.901804 0.810635 0.0479939 ;
}
probability (  "PulmEmbolus" ) { //1 variable(s) and 2 values
table 0.0108246 0.989175 ;
}
probability (  "FiO2" ) { //1 variable(s) and 2 values
table 0.00979933 0.990201 ;
}
probability (  "Catechol"  "InsuffAnesth"  "SaO2"  "TPR"  "ArtCO2" ) { //5 variable(s) and 108 values
table 0.111833 2.85278e-05 0.0135626 0.000493923 1.55658e-05 0.0164458 0.000125714 0.0300572 0.0165705 0.00010704 0.0103454 5.79995e-05 0.0339376 0.008579 4.22056e-05 5.17499e-05 0.0592378 6.64302e-05 2.78383e-05 4.21944e-05 0.000813086 0.0437767 0.109286 0.000178016 0.0353974 4.5902e-05 0.000181184 0.114852 0.0335287 0.00169316 0.0432952 0.0405079 0.00547311 0.0625416 0.0489264 0.0109322 0.120978 0.109967 0.122797 0.987944 0.94746 0.307955 0.92925 0.955576 0.268499 0.935994 0.95102 0.311952 0.983167 0.991942 0.999936 0.960817 0.99999 0.409189 0.888167 0.999971 0.986437 0.999506 0.999984 0.983554 0.999874 0.969943 0.98343 0.999893 0.989655 0.999942 0.966062 0.991421 0.999958 0.999948 0.940762 0.999934 0.999972 0.999958 0.999187 0.956223 0.890714 0.999822 0.964603 0.999954 0.999819 0.885148 0.966471 0.998307 0.956705 0.959492 0.994527 0.937458 0.951074 0.989068 0.879022 0.890033 0.877203 0.0120564 0.0525398 0.692045 0.0707502 0.0444241 0.731501 0.064006 0.0489796 0.688048 0.0168326 0.0080577 6.36999e-05 0.0391831 1.03245e-05 0.590811 ;
}
probability (  "SaO2"  "Shunt"  "PVSat" ) { //3 variable(s) and 18 values
table 0.978992 0.00824608 0.0164594 0.974187 0.989782 0.767529 0.00787197 0.980441 0.00723212 0.0145607 0.00414816 0.232444 0.0131357 0.0113133 0.976308 0.0112523 0.00607024 2.70748e-05 ;
}
probability (  "Shunt"  "PulmEmbolus"  "Intubation" ) { //3 variable(s) and 12 values
table 0.0841141 0.000414402 0.000143256 0.951102 0.960638 0.0442203 0.915886 0.999586 0.999857 0.0488977 0.0393615 0.95578 ;
}
probability (  "PVSat"  "VentAlv"  "FiO2" ) { //3 variable(s) and 24 values
table 0.999861 0.984877 0.999844 0.978652 0.959411 0.00961014 0.999597 0.00671933 6.96759e-05 0.00845502 8.10669e-05 0.00982341 0.0405751 0.947466 0.000199903 0.0158344 6.96759e-05 0.00666798 7.49938e-05 0.0115245 1.35194e-05 0.0429235 0.000203193 0.977446 ;
}
probability (  "MinVol"  "VentLung"  "Intubation" ) { //3 variable(s) and 48 values
table 0.975909 0.983537 0.971318 0.00853438 0.997017 2.93829e-05 0.00903506 0.500416 0.0155673 0.00583387 0.499751 6.67844e-05 0.00985566 0.00987528 0.014334 0.977759 0.000995652 0.970529 0.0100227 0.498584 0.0133854 0.0145306 0.499749 6.6694e-05 0.00766593 0.00329395 1.43197e-05 0.0102915 0.000993491 2.9527e-05 0.969556 0.000501334 0.957706 0.0116663 0.00024975 6.74207e-05 0.00656966 0.00329395 0.014334 0.00341485 0.000993491 0.0294125 0.0113861 0.000498457 0.0133409 0.967969 0.000250173 0.999799 ;
}
probability (  "ExpCO2"  "ArtCO2"  "VentLung" ) { //3 variable(s) and 48 values
table 0.99985 0.110951 0.0122519 0.0098402 0.92934 0.0777117 0.00835418 2.56224e-05 0.971918 0.00828201 0.0117123 0.0477015 4.95382e-05 0.888817 0.975372 0.973758 0.0353116 7.76051e-05 0.00975727 2.60158e-05 0.00962801 0.0115879 0.00470016 4.77256e-05 5.1362e-05 0.000120492 0.0049633 0.0131192 3.61923e-05 0.922132 0.971765 0.999923 0.0112324 0.00852948 0.0080543 0.0476543 4.95378e-05 0.00011213 0.00741261 0.00328225 0.0353117 7.86448e-05 0.010124 2.56225e-05 0.00722122 0.971601 0.975533 0.904597 ;
}
probability (  "ArtCO2"  "VentAlv" ) { //2 variable(s) and 12 values
table 0.00823429 0.00695194 0.0424089 0.898979 0.00820933 0.011304 0.920522 0.0852348 0.983556 0.981744 0.0370688 0.0157858 ;
}
probability (  "VentAlv"  "Intubation"  "VentLung" ) { //3 variable(s) and 48 values
table 0.973149 0.010092 0.00982786 0.00572619 0.964004 0.000993944 0.000497953 0.000250079 0.928748 3.12335e-05 0.00245503 6.66408e-05 0.00876539 0.965068 0.00803949 0.0057208 0.0132289 0.997019 0.000498742 0.000251599 0.0287815 0.99991 0.957573 0.799755 0.0128487 0.00995796 0.972421 0.014343 0.00965299 0.000993554 0.998484 0.00024975 0.0282493 2.94908e-05 0.0334004 0.133348 0.00523742 0.0148821 0.00971128 0.97421 0.0131138 0.000993491 0.000519715 0.999249 0.0142211 2.93831e-05 0.00657198 0.0668295 ;
}
probability (  "VentLung"  "KinkedTube"  "VentTube"  "Intubation" ) { //4 variable(s) and 96 values
table 0.999833 0.25 0.998503 0.932935 0.961658 0.997633 0.424005 0.999808 0.629993 0.334405 0.25 0.998643 0.978886 0.999793 0.977481 0.00977068 0.999764 5.257e-05 0.00892881 0.973308 0.00965769 0.00747421 0.999739 0.0883145 5.5578e-05 0.25 0.000499001 0.0669327 0.0127805 0.000789003 0.566216 6.40615e-05 0.36993 0.665369 0.25 0.000452191 0.00452535 6.88731e-05 2.43176e-05 0.960607 7.67773e-05 0.947191 0.0115513 0.00382112 0.0134063 0.0187283 8.29839e-05 0.000115032 5.55637e-05 0.25 0.000499001 6.6123e-05 0.0127805 0.000789003 2.47605e-06 6.4061e-05 3.88998e-05 0.000110173 0.25 0.000452191 0.00754063 6.88737e-05 2.27968e-05 0.01114 8.27218e-05 0.0527038 0.970512 0.00763672 0.964241 0.00760576 9.4842e-05 0.000116312 5.55637e-05 0.25 0.000499001 6.6123e-05 0.0127805 0.000789003 0.00977622 6.4061e-05 3.82272e-05 0.000115243 0.25 0.000452191 0.00904836 6.88731e-05 0.0224717 0.0184828 7.6767e-05 5.25699e-05 0.00900771 0.0152342 0.012695 0.966192 8.29846e-05 0.911454 ;
}
probability (  "Intubation" ) { //1 variable(s) and 3 values
table 0.919407 0.0286391 0.0519535 ;
}



