// Bayesian Network in the Interchange Format
// Produced by BayesianNetworks package in JavaBayes
// Output created Sun Nov 02 17:58:15 GMT+00:00 1997
// Bayesian network 
network "Alarm" { //37 variables and 37 probability distributions
}
variable  "Hypovolemia" { //2 values
	type discrete[2] {  "True"  "False" };
	property "position = (54, 35)" ;
}
variable  "StrokeVolume" { //3 values
	type discrete[3] {  "Low"  "Normal"  "High" };
	property "position = (184, 113)" ;
}
variable  "LVFailure" { //2 values
	type discrete[2] {  "True"  "False" };
	property "position = (145, 36)" ;
}
variable  "LVEDVolume" { //3 values
	type discrete[3] {  "Low"  "Normal"  "High" };
	property "position = (68, 114)" ;
}
variable  "PCWP" { //3 values
	type discrete[3] {  "Low"  "Normal"  "High" };
	property "position = (111, 177)" ;
}
variable  "CVP" { //3 values
	type discrete[3] {  "Low"  "Normal"  "High" };
	property "position = (32, 179)" ;
}
variable  "History" { //2 values
	type discrete[2] {  "True"  "False" };
	property "position = (238, 61)" ;
}
variable  "MinVolSet" { //3 values
	type discrete[3] {  "Low"  "Normal"  "High" };
	property "position = (564, 38)" ;
}
variable  "VentMach" { //4 values
	type discrete[4] {  "Zero"  "Low"  "Normal"  "High" };
	property "position = (640, 86)" ;
}
variable  "Disconnect" { //2 values
	type discrete[2] {  "True"  "False" };
	property "position = (738, 86)" ;
}
variable  "VentTube" { //4 values
	type discrete[4] {  "Zero"  "Low"  "Normal"  "High" };
	property "position = (682, 168)" ;
}
variable  "KinkedTube" { //2 values
	type discrete[2] {  "True"  "False" };
	property "position = (564, 172)" ;
}
variable  "Press" { //4 values
	type discrete[4] {  "Zero"  "Low"  "Normal"  "High" };
	property "position = (722, 253)" ;
}
variable  "ErrLowOutput" { //2 values
	type discrete[2] {  "True"  "False" };
	property "position = (226, 237)" ;
}
variable  "HRBP" { //3 values
	type discrete[3] {  "Low"  "Normal"  "High" };
	property "position = (229, 305)" ;
}
variable  "ErrCauter" { //2 values
	type discrete[2] {  "True"  "False" };
	property "position = (366, 278)" ;
}
variable  "HREKG" { //3 values
	type discrete[3] {  "Low"  "Normal"  "High" };
	property "position = (289, 305)" ;
}
variable  "HRSat" { //3 values
	type discrete[3] {  "Low"  "Normal"  "High" };
	property "position = (220, 396)" ;
}
variable  "BP" { //3 values
	type discrete[3] {  "Low"  "Normal"  "High" };
	property "position = (154, 396)" ;
}
variable  "CO" { //3 values
	type discrete[3] {  "Low"  "Normal"  "High" };
	property "position = (195, 176)" ;
}
variable  "HR" { //3 values
	type discrete[3] {  "Low"  "Normal"  "High" };
	property "position = (308, 171)" ;
}
variable  "TPR" { //3 values
	type discrete[3] {  "Low"  "Normal"  "High" };
	property "position = (120, 301)" ;
}
variable  "Anaphylaxis" { //2 values
	type discrete[2] {  "True"  "False" };
	property "position = (31, 239)" ;
}
variable  "InsuffAnesth" { //2 values
	type discrete[2] {  "True"  "False" };
	property "position = (329, 37)" ;
}
variable  "PAP" { //3 values
	type discrete[3] {  "Low"  "Normal"  "High" };
	property "position = (1045, 292)" ;
}
variable  "PulmEmbolus" { //2 values
	type discrete[2] {  "True"  "False" };
	property "position = (969, 258)" ;
}
variable  "FiO2" { //2 values
	type discrete[2] {  "Low"  "Normal" };
	property "position = (1014, 162)" ;
}
variable  "Catechol" { //2 values
	type discrete[2] {  "Normal"  "High" };
	property "position = (329, 107)" ;
}
variable  "SaO2" { //3 values
	type discrete[3] {  "Low"  "Normal"  "High" };
	property "position = (926, 387)" ;
}
variable  "Shunt" { //2 values
	type discrete[2] {  "Normal"  "High" };
	property "position = (894, 293)" ;
}
variable  "PVSat" { //3 values
	type discrete[3] {  "Low"  "Normal"  "High" };
	property "position = (949, 197)" ;
}
variable  "MinVol" { //4 values
	type discrete[4] {  "Zero"  "Low"  "Normal"  "High" };
	property "position = (754, 387)" ;
}
variable  "ExpCO2" { //4 values
	type discrete[4] {  "Zero"  "Low"  "Normal"  "High" };
	property "position = (530, 393)" ;
}
variable  "ArtCO2" { //3 values
	type discrete[3] {  "Low"  "Normal"  "High" };
	property "position = (474, 277)" ;
}
variable  "VentAlv" { //4 values
	type discrete[4] {  "Zero"  "Low"  "Normal"  "High" };
	property "position = (881, 165)" ;
}
variable  "VentLung" { //4 values
	type discrete[4] {  "Zero"  "Low"  "Normal"  "High" };
	property "position = (706, 344)" ;
}
variable  "Intubation" { //3 values
	type discrete[3] {  "Normal"  "Esophageal"  "OneSided" };
	property "position = (843, 86)" ;
}
probability (  "Hypovolemia" ) { //1 variable(s) and 2 values
table 0.204468 0.795532 ;
}
probability (  "StrokeVolume"  "LVFailure"  "Hypovolemia" ) { //3 variable(s) and 12 values
table 0.984127 0.493182 0.945556 0.0500179 0.00793651 0.486364 0.0428106 0.900917 0.00793651 0.0204545 0.0116333 0.0490651 ;
}
probability (  "LVFailure" ) { //1 variable(s) and 2 values
table 0.0505314 0.949469 ;
}
probability (  "LVEDVolume"  "Hypovolemia"  "LVFailure" ) { //3 variable(s) and 12 values
table 0.928571 0.976268 0.00681818 0.0478742 0.047619 0.0107027 0.0863636 0.899488 0.0238095 0.0130293 0.906818 0.0526378 ;
}
probability (  "PCWP"  "LVEDVolume" ) { //2 variable(s) and 9 values
table 0.946926 0.037144 0.0126292 0.0435281 0.952618 0.0401837 0.00954563 0.0102376 0.947187 ;
}
probability (  "CVP"  "LVEDVolume" ) { //2 variable(s) and 9 values
table 0.947308 0.0443628 0.010333 0.0416189 0.943168 0.268657 0.0110729 0.0124688 0.72101 ;
}
probability (  "History"  "LVFailure" ) { //2 variable(s) and 4 values
table 0.907473 0.0110985 0.0925267 0.988902 ;
}
probability (  "MinVolSet" ) { //1 variable(s) and 3 values
table 0.00981717 0.980276 0.00990723 ;
}
probability (  "VentMach"  "MinVolSet" ) { //2 variable(s) and 12 values
table 0.0178571 0.0104712 0.00884956 0.919643 0.0105631 0.00884956 0.0357143 0.969505 0.0176991 0.0267857 0.00946082 0.964602 ;
}
probability (  "Disconnect" ) { //1 variable(s) and 2 values
table 0.0497208 0.950279 ;
}
probability (  "VentTube"  "VentMach"  "Disconnect" ) { //3 variable(s) and 32 values
table 0.7 0.901786 0.5 0.0280374 0.966102 0.0103637 0.8125 0.00980392 0.1 0.0357143 0.2 0.948598 0.0094162 0.010862 0.0625 0.00980392 0.1 0.0446429 0.2 0.00934579 0.0169492 0.968909 0.0625 0.0147059 0.1 0.0178571 0.1 0.0140187 0.00753296 0.00986547 0.0625 0.965686 ;
}
probability (  "KinkedTube" ) { //1 variable(s) and 2 values
table 0.0449469 0.955053 ;
}
probability (  "Press"  "KinkedTube"  "Intubation"  "VentTube" ) { //4 variable(s) and 96 values
table 0.818182 0.05 0.00242131 0.0714286 0.25 0.25 0.0526316 0.25 0.5 0.2 0.0344828 0.333333 0.971557 0.0145985 0.0115749 0.0110701 0.842105 0.470588 0.200743 0.1875 0.875 0.0434783 0.0187891 0.0769231 0.0454545 0.55 0.00968523 0.0714286 0.25 0.25 0.263158 0.25 0.166667 0.2 0.0344828 0.166667 0.010479 0.963504 0.00923653 0.0110701 0.0526316 0.411765 0.713755 0.6875 0.0416667 0.782609 0.0104384 0.0769231 0.0454545 0.2 0.0702179 0.0714286 0.25 0.25 0.368421 0.25 0.166667 0.2 0.137931 0.166667 0.00598802 0.0109489 0.971004 0.0110701 0.0526316 0.0588235 0.0669145 0.0625 0.0416667 0.130435 0.388309 0.0769231 0.0909091 0.2 0.917676 0.785714 0.25 0.25 0.315789 0.25 0.166667 0.4 0.793103 0.333333 0.011976 0.0109489 0.00818426 0.96679 0.0526316 0.0588235 0.0185874 0.0625 0.0416667 0.0434783 0.582463 0.769231 ;
}
probability (  "ErrLowOutput" ) { //1 variable(s) and 2 values
table 0.0509818 0.949018 ;
}
probability (  "HRBP"  "ErrLowOutput"  "HR" ) { //3 variable(s) and 18 values
table 0.888889 0.358974 0.322684 0.972387 0.00976971 0.00906239 0.037037 0.632479 0.357827 0.0138067 0.980693 0.0108052 0.0740741 0.00854701 0.319489 0.0138067 0.0095371 0.980132 ;
}
probability (  "ErrCauter" ) { //1 variable(s) and 2 values
table 0.0984507 0.901549 ;
}
probability (  "HREKG"  "HR"  "ErrCauter" ) { //3 variable(s) and 18 values
table 0.377049 0.985201 0.389381 0.012987 0.319728 0.00951858 0.262295 0.012685 0.303097 0.975251 0.335034 0.00933553 0.360656 0.00211416 0.307522 0.0117618 0.345238 0.981146 ;
}
probability (  "HRSat"  "HR"  "ErrCauter" ) { //3 variable(s) and 18 values
table 0.295082 0.968288 0.303097 0.0100466 0.328231 0.00933553 0.344262 0.0169133 0.314159 0.979172 0.321429 0.00878638 0.360656 0.0147992 0.382743 0.0107817 0.35034 0.981878 ;
}
probability (  "BP"  "CO"  "TPR" ) { //3 variable(s) and 27 values
table 0.979618 0.967015 0.303253 0.980333 0.098351 0.049763 0.902888 0.0386236 0.010101 0.011465 0.0120676 0.599161 0.00907716 0.842756 0.386256 0.0831673 0.195225 0.0890725 0.0089172 0.0209171 0.0975866 0.01059 0.0588928 0.563981 0.0139442 0.766152 0.900826 ;
}
probability (  "CO"  "HR"  "StrokeVolume" ) { //3 variable(s) and 27 values
table 0.956522 0.952128 0.347826 0.94604 0.0426065 0.0102564 0.800794 0.0102112 0.017094 0.0144928 0.0425532 0.608696 0.0400348 0.947055 0.348718 0.190602 0.0387561 0.0042735 0.0289855 0.00531915 0.0434783 0.0139252 0.0103383 0.641026 0.00860357 0.951033 0.978632 ;
}
probability (  "HR"  "Catechol" ) { //2 variable(s) and 6 values
table 0.103356 0.0102471 0.883445 0.087402 0.0131991 0.902351 ;
}
probability (  "TPR"  "Anaphylaxis" ) { //2 variable(s) and 6 values
table 0.967742 0.304822 0.0107527 0.395623 0.0215054 0.299555 ;
}
probability (  "Anaphylaxis" ) { //1 variable(s) and 2 values
table 0.00819672 0.991803 ;
}
probability (  "InsuffAnesth" ) { //1 variable(s) and 2 values
table 0.201315 0.798685 ;
}
probability (  "PAP"  "PulmEmbolus" ) { //2 variable(s) and 6 values
table 0.00813008 0.0501684 0.186992 0.902121 0.804878 0.0477101 ;
}
probability (  "PulmEmbolus" ) { //1 variable(s) and 2 values
table 0.0108989 0.989101 ;
}
probability (  "FiO2" ) { //1 variable(s) and 2 values
table 0.00972798 0.990272 ;
}
probability (  "Catechol"  "InsuffAnesth"  "SaO2"  "TPR"  "ArtCO2" ) { //5 variable(s) and 108 values
table 0.181818 0.025641 0.025 0.25 0.0149254 0.0232558 0.1 0.0555556 0.0218978 0.047619 0.0122549 0.05 0.0625 0.00970874 0.0384615 0.0454545 0.064433 0.0588235 0.0263158 0.04 0.25 0.08 0.125 0.125 0.0645161 0.04 0.142857 0.157895 0.04 0.00338983 0.0769231 0.04329 0.00774194 0.08 0.0451613 0.0133111 0.1375 0.109622 0.132353 0.977778 0.947236 0.307692 0.916667 0.95541 0.279412 0.923077 0.936364 0.333333 0.976 0.984733 0.944444 0.948454 0.99 0.421053 0.818182 0.974359 0.975 0.75 0.985075 0.976744 0.9 0.944444 0.978102 0.952381 0.987745 0.95 0.9375 0.990291 0.961538 0.954545 0.935567 0.941176 0.973684 0.96 0.75 0.92 0.875 0.875 0.935484 0.96 0.857143 0.842105 0.96 0.99661 0.923077 0.95671 0.992258 0.92 0.954839 0.986689 0.8625 0.890378 0.867647 0.0222222 0.0527638 0.692308 0.0833333 0.0445902 0.720588 0.0769231 0.0636364 0.666667 0.024 0.0152672 0.0555556 0.0515464 0.01 0.578947 ;
}
probability (  "SaO2"  "Shunt"  "PVSat" ) { //3 variable(s) and 18 values
table 0.977667 0.00837521 0.0169271 0.971429 0.986028 0.725 0.00843672 0.980458 0.00911458 0.015873 0.00598802 0.25 0.0138958 0.0111669 0.973958 0.0126984 0.00798403 0.025 ;
}
probability (  "Shunt"  "PulmEmbolus"  "Intubation" ) { //3 variable(s) and 12 values
table 0.0892857 0.2 0.111111 0.950867 0.956113 0.048951 0.910714 0.8 0.888889 0.0491332 0.0438871 0.951049 ;
}
probability (  "PVSat"  "VentAlv"  "FiO2" ) { //3 variable(s) and 24 values
table 0.875 0.9838 0.882353 0.978147 0.935897 0.00993172 0.75 0.00892857 0.0625 0.00883652 0.0588235 0.0104895 0.0512821 0.946989 0.125 0.0178571 0.0625 0.00736377 0.0588235 0.0113636 0.0128205 0.0430788 0.125 0.973214 ;
}
probability (  "MinVol"  "VentLung"  "Intubation" ) { //3 variable(s) and 48 values
table 0.972399 0.971609 0.932432 0.0114754 0.4 0.0263158 0.0090231 0.333333 0.017316 0.0084507 0.375 0.0526316 0.0116773 0.0126183 0.027027 0.972131 0.2 0.894737 0.0103465 0.333333 0.0151515 0.0169014 0.375 0.0526316 0.00849257 0.00946372 0.0135135 0.0114754 0.2 0.0263158 0.968961 0.166667 0.952381 0.0140845 0.125 0.0526316 0.007431 0.00630915 0.027027 0.00491803 0.2 0.0526316 0.0116699 0.166667 0.0151515 0.960563 0.125 0.842105 ;
}
probability (  "ExpCO2"  "ArtCO2"  "VentLung" ) { //3 variable(s) and 48 values
table 0.88 0.142857 0.0161663 0.0127389 0.848485 0.117647 0.00857449 0.0232558 0.968627 0.0096463 0.0124575 0.08 0.04 0.714286 0.967667 0.964968 0.0606061 0.0588235 0.0100482 0.0232558 0.0109804 0.0128617 0.00566251 0.04 0.04 0.0714286 0.00692841 0.0159236 0.030303 0.705882 0.971463 0.930233 0.012549 0.011254 0.0101925 0.08 0.04 0.0714286 0.00923788 0.00636943 0.0606061 0.117647 0.00991426 0.0232558 0.00784314 0.966238 0.971687 0.8 ;
}
probability (  "ArtCO2"  "VentAlv" ) { //2 variable(s) and 12 values
table 0.00948213 0.00777202 0.0425584 0.896247 0.00948213 0.0103627 0.920172 0.0860927 0.981036 0.981865 0.0372694 0.01766 ;
}
probability (  "VentAlv"  "Intubation"  "VentLung" ) { //3 variable(s) and 48 values
table 0.969214 0.0131148 0.00986526 0.0084507 0.952681 0.2 0.166667 0.125 0.878378 0.0263158 0.004329 0.0526316 0.0106157 0.959016 0.00818094 0.0084507 0.0189274 0.4 0.166667 0.125 0.0540541 0.921053 0.950216 0.684211 0.0138004 0.0114754 0.972089 0.0169014 0.0126183 0.2 0.5 0.125 0.0405405 0.0263158 0.0367965 0.157895 0.00636943 0.0163934 0.00986526 0.966197 0.0157729 0.2 0.166667 0.625 0.027027 0.0263158 0.00865801 0.105263 ;
}
probability (  "VentLung"  "KinkedTube"  "VentTube"  "Intubation" ) { //4 variable(s) and 96 values
table 0.863636 0.25 0.5 0.8 0.25 0.4 0.423729 0.842105 0.586207 0.285714 0.25 0.5 0.974551 0.842105 0.916667 0.0109489 0.823529 0.0434783 0.00876885 0.962825 0.0125261 0.0110701 0.8125 0.153846 0.0454545 0.25 0.166667 0.1 0.25 0.2 0.561743 0.0526316 0.344828 0.5 0.25 0.166667 0.00598802 0.0526316 0.0208333 0.952555 0.0588235 0.826087 0.0118087 0.00743494 0.0167015 0.0221402 0.0625 0.0769231 0.0454545 0.25 0.166667 0.05 0.25 0.2 0.00242131 0.0526316 0.0344828 0.0714286 0.25 0.166667 0.00898204 0.0526316 0.0208333 0.0145985 0.0588235 0.0869565 0.970303 0.0111524 0.956159 0.0110701 0.0625 0.0769231 0.0454545 0.25 0.166667 0.05 0.25 0.2 0.0121065 0.0526316 0.0344828 0.142857 0.25 0.166667 0.010479 0.0526316 0.0416667 0.0218978 0.0588235 0.0434783 0.00911961 0.0185874 0.0146138 0.95572 0.0625 0.692308 ;
}
probability (  "Intubation" ) { //1 variable(s) and 3 values
table 0.919031 0.0289111 0.052058 ;
}



